digraph Tree {
node [shape=box] ;
0 [label="X[10] <= 0.5\nmse = 0.21\nsamples = 1000\nvalue = 1.3"] ;
1 [label="X[0] <= 22.5\nmse = 0.2435\nsamples = 606\nvalue = 1.4191"] ;
0 -> 1 [labeldistance=2.5, labelangle=45, headlabel="True"] ;
2 [label="X[12] <= 0.5\nmse = 0.2219\nsamples = 349\nvalue = 1.3324"] ;
1 -> 2 ;
3 [label="X[0] <= 11.5\nmse = 0.2136\nsamples = 330\nvalue = 1.3091"] ;
2 -> 3 ;
4 [label="X[1] <= 10931.5\nmse = 0.1445\nsamples = 97\nvalue = 1.1753"] ;
3 -> 4 ;
5 [label="mse = 0.133\nsamples = 95\nvalue = 1.1579"] ;
4 -> 5 ;
6 [label="mse = 0.0\nsamples = 2\nvalue = 2.0"] ;
4 -> 6 ;
7 [label="X[1] <= 1285.5\nmse = 0.2317\nsamples = 233\nvalue = 1.3648"] ;
3 -> 7 ;
8 [label="mse = 0.2474\nsamples = 69\nvalue = 1.5507"] ;
7 -> 8 ;
9 [label="mse = 0.2045\nsamples = 164\nvalue = 1.2866"] ;
7 -> 9 ;
10 [label="X[48] <= 0.5\nmse = 0.1939\nsamples = 19\nvalue = 1.7368"] ;
2 -> 10 ;
11 [label="X[52] <= 0.5\nmse = 0.071\nsamples = 13\nvalue = 1.9231"] ;
10 -> 11 ;
12 [label="mse = 0.0\nsamples = 12\nvalue = 2.0"] ;
11 -> 12 ;
13 [label="mse = 0.0\nsamples = 1\nvalue = 1.0"] ;
11 -> 13 ;
14 [label="X[4] <= 32.5\nmse = 0.2222\nsamples = 6\nvalue = 1.3333"] ;
10 -> 14 ;
15 [label="mse = 0.2222\nsamples = 3\nvalue = 1.6667"] ;
14 -> 15 ;
16 [label="mse = 0.0\nsamples = 3\nvalue = 1.0"] ;
14 -> 16 ;
17 [label="X[54] <= 0.5\nmse = 0.2486\nsamples = 257\nvalue = 1.537"] ;
1 -> 17 ;
18 [label="X[13] <= 0.5\nmse = 0.2361\nsamples = 89\nvalue = 1.382"] ;
17 -> 18 ;
19 [label="X[23] <= 0.5\nmse = 0.1793\nsamples = 47\nvalue = 1.234"] ;
18 -> 19 ;
20 [label="mse = 0.2358\nsamples = 21\nvalue = 1.381"] ;
19 -> 20 ;
21 [label="mse = 0.1021\nsamples = 26\nvalue = 1.1154"] ;
19 -> 21 ;
22 [label="X[1] <= 5488.0\nmse = 0.2477\nsamples = 42\nvalue = 1.5476"] ;
18 -> 22 ;
23 [label="mse = 0.2456\nsamples = 30\nvalue = 1.4333"] ;
22 -> 23 ;
24 [label="mse = 0.1389\nsamples = 12\nvalue = 1.8333"] ;
22 -> 24 ;
25 [label="X[0] <= 43.5\nmse = 0.2358\nsamples = 168\nvalue = 1.619"] ;
17 -> 25 ;
26 [label="X[44] <= 0.5\nmse = 0.2474\nsamples = 136\nvalue = 1.5515"] ;
25 -> 26 ;
27 [label="mse = 0.2495\nsamples = 111\nvalue = 1.4775"] ;
26 -> 27 ;
28 [label="mse = 0.1056\nsamples = 25\nvalue = 1.88"] ;
26 -> 28 ;
29 [label="X[3] <= 1.5\nmse = 0.085\nsamples = 32\nvalue = 1.9062"] ;
25 -> 29 ;
30 [label="mse = 0.2222\nsamples = 3\nvalue = 1.3333"] ;
29 -> 30 ;
31 [label="mse = 0.0333\nsamples = 29\nvalue = 1.9655"] ;
29 -> 31 ;
32 [label="X[30] <= 0.5\nmse = 0.1031\nsamples = 394\nvalue = 1.1168"] ;
0 -> 32 [labeldistance=2.5, labelangle=-45, headlabel="False"] ;
33 [label="X[35] <= 0.5\nmse = 0.2087\nsamples = 64\nvalue = 1.2969"] ;
32 -> 33 ;
34 [label="X[4] <= 44.5\nmse = 0.1956\nsamples = 60\nvalue = 1.2667"] ;
33 -> 34 ;
35 [label="X[44] <= 0.5\nmse = 0.2222\nsamples = 48\nvalue = 1.3333"] ;
34 -> 35 ;
36 [label="mse = 0.1939\nsamples = 38\nvalue = 1.2632"] ;
35 -> 36 ;
37 [label="mse = 0.24\nsamples = 10\nvalue = 1.6"] ;
35 -> 37 ;
38 [label="mse = 0.0\nsamples = 12\nvalue = 1.0"] ;
34 -> 38 ;
39 [label="X[25] <= 0.5\nmse = 0.1875\nsamples = 4\nvalue = 1.75"] ;
33 -> 39 ;
40 [label="mse = 0.0\nsamples = 1\nvalue = 1.0"] ;
39 -> 40 ;
41 [label="mse = 0.0\nsamples = 3\nvalue = 2.0"] ;
39 -> 41 ;
42 [label="X[4] <= 30.5\nmse = 0.0751\nsamples = 330\nvalue = 1.0818"] ;
32 -> 42 ;
43 [label="X[1] <= 6465.5\nmse = 0.1311\nsamples = 116\nvalue = 1.1552"] ;
42 -> 43 ;
44 [label="X[26] <= 0.5\nmse = 0.1076\nsamples = 106\nvalue = 1.1226"] ;
43 -> 44 ;
45 [label="mse = 0.0954\nsamples = 103\nvalue = 1.1068"] ;
44 -> 45 ;
46 [label="mse = 0.2222\nsamples = 3\nvalue = 1.6667"] ;
44 -> 46 ;
47 [label="X[48] <= 0.5\nmse = 0.25\nsamples = 10\nvalue = 1.5"] ;
43 -> 47 ;
48 [label="mse = 0.2041\nsamples = 7\nvalue = 1.7143"] ;
47 -> 48 ;
49 [label="mse = 0.0\nsamples = 3\nvalue = 1.0"] ;
47 -> 49 ;
50 [label="X[15] <= 0.5\nmse = 0.0403\nsamples = 214\nvalue = 1.0421"] ;
42 -> 50 ;
51 [label="X[5] <= 1.5\nmse = 0.0721\nsamples = 115\nvalue = 1.0783"] ;
50 -> 51 ;
52 [label="mse = 0.0326\nsamples = 89\nvalue = 1.0337"] ;
51 -> 52 ;
53 [label="mse = 0.1775\nsamples = 26\nvalue = 1.2308"] ;
51 -> 53 ;
54 [label="mse = 0.0\nsamples = 99\nvalue = 1.0"] ;
50 -> 54 ;
}